function [y1] = funcionHidden_10_10(x1)
%MYNEURALNETWORKFUNCTION neural network simulation function.
%
% Auto-generated by MATLAB, 24-Jan-2021 17:53:02.
% 
% [y1] = myNeuralNetworkFunction(x1) takes these arguments:
%   x = 23xQ matrix, input #1
% and returns:
%   y = 1xQ matrix, output #1
% where Q is the number of samples.

%#ok<*RPMT0>

% ===== NEURAL NETWORK CONSTANTS =====

% Input 1
x1_step1.xoffset = [0;0;0;0;0;0;0;0;0;0;0;0;0;0;0;0;0;0;0;0;0;0;0];
x1_step1.gain = [0.166666666666667;0.333333333333333;0.666666666666667;0.222222222222222;0.0952380952380952;2;0.5;2;2;2;2;0.666666666666667;0.333333333333333;0.166666666666667;0.2;1;0.4;0.2;2;2;2;2;3.01490196093565];
x1_step1.ymin = -1;

% Layer 1
b1 = [0.081888685787581128039;-0.13806176158999064474;0.084523509505609217829;0.46009710066318754151;0.12074099697112855578;-0.36571408857321713315;0.20173758862921886692;0.31616584746882619994;0.11003055384954323059;-0.024770375106490077899];
IW1_1 = [-0.074955856089471320503 0.2895098596720785955 0.15209210927032690286 -0.33074675781669604646 1.5608263528965142797 0.10153681595911895341 0.17711136116171560806 -0.017714008032047819097 -0.28869215907638906549 0.18599966808023515874 0.12693041137883545599 -0.082554062641352274343 -1.2500184119543802375 0.17155629136140992941 0.5159895502231340858 -0.46035595486141517307 0.36180298364351948237 -0.2513728775058703957 -0.067499540837082525058 0.1720647985185969342 -0.16230205447492829229 0.070689320542214342802 -0.46468063565732609099;-0.0078640380997889048481 -0.26037894312785797579 -0.97821072268641218184 0.39748918187784304523 0.30092041164437932643 -0.28579009904421509569 -0.098495829614505842065 -0.12864872611082162068 -0.060565591690870779207 -0.0029509910074928917545 0.27417092117649238814 -0.55713547602295621086 0.38884675554497116767 -0.15438676710312893015 0.5401125495221507089 -0.08399188407742062823 -0.23401416163613136812 0.12297356867771105926 -0.10883032993102205455 0.040662151197986606821 0.017958783116727043694 0.075527135013165699884 0.54558651695278870264;0.39759542623388866023 0.74260407863026256514 0.054282405794890992157 0.28213520129310959428 -1.3468090121716524976 -0.89260354086713733501 0.12466259726017973886 0.018284091070586264843 0.020573258369945498364 -0.08334753623149818158 0.0018945550126785379308 0.71143026906928941155 -1.5377276236549539679 -0.34887916553130621233 0.4587332302074218493 0.24604695562098671813 -0.15364154712290617466 -0.55242923697366486113 -0.49237199102211720581 -0.54601688296686290425 -0.079608449601308348131 0.23081790386100028978 -0.74491897089238001683;-0.15748867672759342407 1.0403750271509382141 -0.12459207210608408412 0.77118501630335056785 0.26178350563989100097 0.031391345789126390287 -1.0334459612121604799 -0.072392908878897432867 0.12414333179546536978 -0.42879232743688799889 -0.079147147142098195349 0.92992310099742481189 0.93928784814180077412 0.12230317904234329351 -0.4853079666233560685 0.27409496273512901077 -0.25602888820632196953 0.74537973218890185567 -0.07476182621069253631 -0.27724953101995331028 -0.34683295069206876438 0.0099303349853712852974 1.1790152834418528016;-0.2938388817823558985 -0.22869819767495608298 -0.69659704161265967315 0.13663002320341782747 1.5771353748797143357 -0.36137285688767867287 0.40218567421089801428 0.066372416415357196606 0.16724301439792521595 -0.20911089276406349957 -0.077963772290418273392 -0.75817784434528667781 -0.059257299523081577441 0.1530999444566381873 0.30034191605843851836 0.57863464829143218537 0.61128415147099035565 0.10534570459072765958 -0.20712722476242215186 -0.21592979118407956696 -0.14909404416936808402 0.23996943022864927753 -0.36112862049274313536;0.38268960234073839954 -0.54614546643678574256 0.85259133798649511249 -0.40223891179922349748 -0.3289016433236540693 -0.28440725258363735994 -1.0493965092337382838 -0.6104435012172880759 0.37819799715553853448 0.31305615579317980224 0.047449499051321536447 -0.16951519108825044424 -0.14106416782327796389 -0.14492777639687803859 -0.1851759182356035871 0.26076476857925107167 -0.54845052012194939195 -0.088403886413106966269 0.13911518160856248261 0.11473670127231044846 0.26788709508586405761 0.011633789560310985392 -0.10376907021567199907;-0.016093242396222940532 -0.26607625704641030273 0.27353500346193004855 0.57060715723618493644 0.45949394761576084489 0.4603283888346752506 -0.50601188033869981542 -0.010542822755301281892 0.17901760999099419758 -0.36695352459675145695 -0.077520290279424294844 -0.45330073539893944723 0.676154235180001284 -0.38497806307723031471 0.090006115993766608319 0.70515675783204156968 -0.33018462655537289541 0.66073700543219204828 0.14236717040082885744 -0.32106436129477933239 -0.40358524513558902136 0.43121007814446649098 -0.3779521841518924119;-0.35760110399643757484 -0.28434543657412930662 -0.40995585002705325905 0.88410597274399749246 -1.3077041703718748078 0.1208672949431239263 0.13091321374658712595 0.025395367168109223011 0.17535764995612085348 -0.42508927838127569254 0.1968903095026647565 0.99634448682006959697 0.98289186601801203924 0.22464082068264906722 0.47609661841963990536 -0.27790893759006091157 -0.98248888768377606873 0.51631701289145837119 0.043691323044230644113 -0.38637089306330985039 -0.13451313877939480301 -0.084749443160190895963 -0.093084017004821259511;-0.18950337092002722539 0.26006817174096175105 -0.28253385183452311979 0.43042170393487994007 1.4647340541790105917 -0.11148621068126496336 0.47214769148589708081 -0.012715944306428261096 -0.28124331346013692334 0.10166302059621536158 0.10537123798060639424 -1.238370336668185967 0.81688091611223823119 0.31467733135498826558 -0.63165001931194153517 -0.33614479838853816851 0.32912472349553717477 0.39513083079354560656 -0.42738056185154088551 -0.38140858359194068639 -0.1664495967849823066 -0.045409912231548721362 0.81143721171021188088;-0.13875329116080967196 -0.53477601377314776254 0.23876935484282987843 -0.40219272334680145065 0.90153251024492175869 -0.24195734750759745335 0.17204865583824113795 -0.4891719617923892538 -0.030498597947176700473 0.15105769972177224281 0.31721952686261972731 -0.49878236612380183468 -0.4480317108143466176 0.55815612340928988377 0.24064239140377183257 -0.86206862909373305204 0.080224446706250132633 -0.39618723250030962735 0.062686134734936699298 0.23723099609730671777 0.25506711825926570159 -0.0099103918885356610119 -1.1182695209968087635];

% Layer 2
b2 = 0.51145480761152173343;
LW2_1 = [1.6272668661996403383 -1.4732569212615616028 -1.0444775492395494965 -1.1293898497397973912 1.5339147971808337889 1.7559091363177632417 -1.3775491398014263478 1.8584219667011192545 1.223521833076623766 -1.6703818695945511497];

% Output 1
y1_step1.ymin = -1;
y1_step1.gain = 0.0196656833824975;
y1_step1.xoffset = 0;

% ===== SIMULATION ========

% Dimensions
Q = size(x1,2); % samples

% Input 1
xp1 = mapminmax_apply(x1,x1_step1);

% Layer 1
a1 = tansig_apply(repmat(b1,1,Q) + IW1_1*xp1);

% Layer 2
a2 = repmat(b2,1,Q) + LW2_1*a1;

% Output 1
y1 = mapminmax_reverse(a2,y1_step1);
end

% ===== MODULE FUNCTIONS ========

% Map Minimum and Maximum Input Processing Function
function y = mapminmax_apply(x,settings)
  y = bsxfun(@minus,x,settings.xoffset);
  y = bsxfun(@times,y,settings.gain);
  y = bsxfun(@plus,y,settings.ymin);
end

% Sigmoid Symmetric Transfer Function
function a = tansig_apply(n,~)
  a = 2 ./ (1 + exp(-2*n)) - 1;
end

% Map Minimum and Maximum Output Reverse-Processing Function
function x = mapminmax_reverse(y,settings)
  x = bsxfun(@minus,y,settings.ymin);
  x = bsxfun(@rdivide,x,settings.gain);
  x = bsxfun(@plus,x,settings.xoffset);
end
