function [y1] = funcionHidden_10_8(x1)
%MYNEURALNETWORKFUNCTION neural network simulation function.
%
% Auto-generated by MATLAB, 24-Jan-2021 18:45:37.
% 
% [y1] = myNeuralNetworkFunction(x1) takes these arguments:
%   x = 22xQ matrix, input #1
% and returns:
%   y = 1xQ matrix, output #1
% where Q is the number of samples.

%#ok<*RPMT0>

% ===== NEURAL NETWORK CONSTANTS =====

% Input 1
x1_step1.xoffset = [0;0;0;0;0;0;0;0;0;0;0;0;0;0;0;0;0;0;0;0;0;0];
x1_step1.gain = [0.166666666666667;0.333333333333333;0.666666666666667;0.222222222222222;0.0952380952380952;2;0.5;2;2;2;2;0.666666666666667;0.333333333333333;0.166666666666667;0.2;1;0.4;0.2;2;2;2;3.01490196093565];
x1_step1.ymin = -1;

% Layer 1
b1 = [0.31312485910679815904;0.083614675970981849895;0.40903983463291199163;0.45347887689111310294;0.0051503466686140921341;-0.041003592815822685613;0.11975303495284396471;0.16375399386184483208;0.25422103193342221461;0.11783857921143789382];
IW1_1 = [0.2672464769471014634 0.37065162353736519352 0.054298170747586284313 -0.13280813907729155376 -0.099939917174647868725 0.2155553872681957861 0.18853807053529755833 0.14728308348562463292 -0.3290325662787273453 -0.28568682755553570507 -0.015248596342860033445 0.33821469469009790565 0.4552005578234956662 0.19911658937704532213 -0.0061008041485098672002 0.32678289727270642961 -0.07112234248562415706 0.33155473369089344393 -0.19765095314600339416 -0.062885969306516312227 -0.20404338763233420551 0.52476449582528761351;-0.14697946374698953043 -0.56462793791552334799 0.29000069799779837343 0.2886250061812686285 1.0459728319549033149 -0.16961710592438353218 0.44678008476997460585 -0.10008386639139218999 -0.010392908461149374943 -0.13870660881867702408 0.15677997217455930112 -0.030851312183793239835 1.0927795176042431891 -0.048865244252901986199 -0.050836654848029141918 -0.47225097471320531817 -0.062488803606863776996 0.64115623703858970472 -0.21449879231536556068 -0.057519348585313975764 -0.086722922567071203392 1.1996440178957279432;-0.30197735742683695648 0.60436628443204498673 -0.35721019297191725084 0.44696598903612860809 -0.98916309302171523399 -0.3776496529129434454 -0.46399713545692372607 -0.29468484304410463848 -0.23227014802777498637 -0.21779457408041993927 -0.24149579417956471006 1.1139436411555621032 1.2545842850491597531 0.15486112731390913599 0.17187229867684064577 -0.15452569904092428033 -0.16906694542853017982 0.37061551061906206073 0.11374689319924917441 -0.036763305285610836659 -0.029966158911847277924 -0.36414991867213025722;-0.76202327982748108148 -0.17930942648828149255 0.095619780722268496453 0.28105367294316713211 1.5401446608674549399 -0.1383805709075001944 0.46600799433393841342 -0.10860233379878192483 -0.96518907806729026255 -0.32568978985924523784 0.27286918451744579528 -0.86019642101727278316 0.6008476187076490227 0.24798189112266746936 0.44450155805299090828 0.0032731662265086140448 0.34083277393420952084 0.62340262046920813521 0.11621327268046305337 -0.32973716086722515417 -0.080532301347447682316 0.45734481452263925361;0.26731441250194221126 -0.10309822084427529287 0.54800287834495298167 -0.16939409645092842749 0.45591070951250639576 0.20490895688450946888 -0.54422314984093056456 0.34312037762977276589 0.12686942724295918739 0.24887958533515799897 0.19037598110307024646 -0.79915951454784617258 -1.0066774641981184324 0.26061788077707165323 0.19605088946654747328 0.11588162209816132986 0.089545883717152885417 -0.16877250794191570038 -0.099595063986271908929 0.1165631170935140376 -0.065011327403015212179 -0.77528723855127135156;-0.13676576139963309009 -0.73560222365098515418 0.39984219128911757668 -0.020504036824135134925 -0.94057070308495016597 -0.24890100181921021028 0.35228403900099003465 0.21494884075399567358 -0.29744573774186638948 0.052745863452706251429 0.19310738694191054154 0.18412480790699331523 -0.048624339210078214302 -0.4224559247944935092 0.12844793935392040396 -0.18136546364767938688 -0.2177634394606141055 -0.012086704123114565615 -0.094469195852851337025 0.088489678360551798919 -0.12413826927060078731 -0.26744459463774833408;0.085028419285937503758 0.94482576134502016529 -0.77565807584207480119 0.16887134040054205264 -0.77548622108853915158 0.11573878320388431007 0.19460315838509500974 -0.24588072431187604772 -0.65160361284157797268 -0.20907652881800034561 0.11193806749421178481 0.61589520923539375907 -0.92439964581157874068 -0.14295769412771924811 0.21170708572969704209 0.36532918190080854171 0.13427540621214384409 -0.61571969411223159696 0.18018742919121089052 0.084919510207033740978 -0.59098218680212755149 -0.98633351161947535601;0.49683778329254124628 -0.047439909118492051832 -0.31534129536008997929 -0.97842850004353376647 -0.85600648572416970783 -0.098349406061295510662 1.0696793934147683647 0.26460855743096167725 -0.087095589446490428998 -0.068241707094838885417 -0.19844317721775686647 0.31027856268144460294 -0.45608960319060121158 0.61350314982648956885 -0.22886262607154636561 -0.24700807145597303283 0.60118636212494291904 -1.0042391282097657967 0.036709634544170033355 0.10284930337471175077 -0.54123976853592303815 0.92760172175356980784;-0.079220104350754161349 0.28623787541910777898 0.72822233653816104137 0.12559824935859897899 -1.7160367877538702519 0.013778930478698731693 -0.84653286959400309009 -0.14611191887688368407 -0.24529478209127658639 -0.32693990295842495497 -0.43526178973783752335 0.02255076777611166039 0.68997500355976704167 0.54586907740681522849 -0.30665067892297559471 0.17030386664692384602 -0.48965584278720070133 0.32819510741218987926 0.38110832507720021622 -0.16961508811810452335 0.30724727904196486028 0.19299471300253953632;-0.040285195672210269424 -0.69115382971426431169 -0.16322079718577295337 0.5402346704002165545 0.23775840255815761104 0.2661275487932904249 0.25860618601274920625 -0.27291949611291443922 0.19116673615788287721 -0.0011748226077541643313 -0.31893862602214889668 0.33410583684230077406 0.27933670161447943237 -0.2162356297048039222 -0.3627997678704544815 0.049722537533530133946 -0.89663400336762888454 0.11877929917271853877 0.26608453437122986385 0.02710022079846445206 0.07086917889011663807 0.069980686975342279443];

% Layer 2
b2 = -0.32480216642597586896;
LW2_1 = [1.2636466786434012999 -1.4130943317318223063 1.3642684567460536815 1.5558304889737060162 1.4991930635701853358 0.88369927094139577584 -1.6440729576945882773 1.7910283290036483894 -1.3707880524482705109 1.2509802637649496404];

% Output 1
y1_step1.ymin = -1;
y1_step1.gain = 0.0196656833824975;
y1_step1.xoffset = 0;

% ===== SIMULATION ========

% Dimensions
Q = size(x1,2); % samples

% Input 1
xp1 = mapminmax_apply(x1,x1_step1);

% Layer 1
a1 = tansig_apply(repmat(b1,1,Q) + IW1_1*xp1);

% Layer 2
a2 = repmat(b2,1,Q) + LW2_1*a1;

% Output 1
y1 = mapminmax_reverse(a2,y1_step1);
end

% ===== MODULE FUNCTIONS ========

% Map Minimum and Maximum Input Processing Function
function y = mapminmax_apply(x,settings)
  y = bsxfun(@minus,x,settings.xoffset);
  y = bsxfun(@times,y,settings.gain);
  y = bsxfun(@plus,y,settings.ymin);
end

% Sigmoid Symmetric Transfer Function
function a = tansig_apply(n,~)
  a = 2 ./ (1 + exp(-2*n)) - 1;
end

% Map Minimum and Maximum Output Reverse-Processing Function
function x = mapminmax_reverse(y,settings)
  x = bsxfun(@minus,y,settings.ymin);
  x = bsxfun(@rdivide,x,settings.gain);
  x = bsxfun(@plus,x,settings.xoffset);
end
