function [y1] = funcionHidden_10_4(x1)
%MYNEURALNETWORKFUNCTION neural network simulation function.
%
% Auto-generated by MATLAB, 26-Jan-2021 20:51:34.
% 
% [y1] = myNeuralNetworkFunction(x1) takes these arguments:
%   x = 23xQ matrix, input #1
% and returns:
%   y = 1xQ matrix, output #1
% where Q is the number of samples.

%#ok<*RPMT0>

% ===== NEURAL NETWORK CONSTANTS =====

% Input 1
x1_step1.xoffset = [0;0;0;0;0;0;0;0;0;0;0;0;0;0;0;0;0;0;0;0;0;0;0];
x1_step1.gain = [0.166666666666667;0.333333333333333;0.666666666666667;0.222222222222222;0.0952380952380952;2;0.5;2;2;2;2;0.666666666666667;0.333333333333333;0.166666666666667;0.2;1;0.4;0.2;2;2;2;2;3.06849315203002];
x1_step1.ymin = -1;

% Layer 1
b1 = [0.14432698217680203778;-0.3502313602747201271;-0.15996361376819506761;-0.11588003557619959427;0.019562762600745811636;-0.044868136100147990031;0.054436465790606222703;0.038897837280138812532;-0.11255194685669775434;0.10597892184919702196];
IW1_1 = [0.83765303891195141972 -0.18975444701175114837 0.38736467208395886086 -1.2372787296088976206 -0.086927000367786652624 -0.062297867873730428112 -0.031585093688229738673 -0.26824418552558937368 0.078738028041936095058 -0.13442865260013645012 -0.12410104828162947521 0.65238136935573376451 -0.24001628766926819125 0.24413187569079572437 -0.12076373250571478812 -1.0449258736512425649 -0.077323298245480037716 0.78022756323611941465 -0.17912103778775642637 0.0030331944582186309151 -0.013465441492563994669 -0.24299460570494482714 0.35265006110147451013;0.4644247027355916102 -0.29641412055132121406 0.12462006806922829028 -0.88092479131976064721 1.3937677406124096002 -0.35287616952591838171 -0.0064853366805970851655 0.20620458207702060949 -0.18016334410713824576 0.22481857379074215997 0.048535721737447905244 -1.3676585600760335915 -0.66597821032142279218 -0.0059673658294901186019 -0.037616791307287830715 0.53211847924922650588 1.0183267767098611589 -0.47181487638162994402 -0.29326537574979577583 0.39479825307068039386 0.30932718574385270616 -0.10653655199415544563 0.35226917968835247397;0.52200864303447591652 -0.30493334033103369762 0.42406913386034605917 -0.33101410188331459317 -1.4926836144007333829 0.10697964907355748954 0.68834974153984351819 0.05437362833715344429 0.12764026284884322227 0.17289131754536199437 -0.22163763851327794585 0.87619900846654741322 -0.77553132045102823877 -0.68481784041581883482 0.2320877177589162621 -0.070664291334199422212 -0.5789769977877973206 -0.38211716031703890639 0.30796947275927111232 -0.054807504881635230043 0.17305904214269271502 0.11721862208451497289 -0.84142401742851313795;0.2420499945417775578 0.1353132731090368468 0.30181846780434851141 -0.28259199913495558487 -1.3868665876420744887 0.024561380135481432341 -0.57971774998200498175 -0.36132580540591552332 0.1276508608816714907 0.11309586302005232572 -0.15569052960850071621 0.90310976208929016895 0.053072169725282065944 0.066518123243200763528 0.04682450610685989778 -0.68943054594616204334 -0.50237704209380817932 0.2896962003224831661 0.14621977634377897326 -0.040449093133308036685 0.029929365025758495472 0.065988108254926541862 0.057025737543435990606;0.053138782994235064794 -0.48047694699833626286 -0.7080894938234811864 -0.014988310947034205745 0.54025561879301609025 -0.1862672047661625141 -0.74960560407775944647 0.0075347895232802525323 0.16763584397903599776 0.0096173319751072135209 0.21112036155343938404 -0.84851249533127404145 0.83245513481943977929 0.33541071267539512846 -0.51684061144626991524 0.5964319214770259503 0.97789703068562461308 -0.20019182914770944359 -0.2071925616274359061 0.18213305774947050053 0.091237253688709302191 -0.24507465152630605876 -0.89670697446619274107;-0.091644454410437989345 -0.25015348676568593955 -0.14710739395695335285 -0.2812729887778425697 0.53773990014885275635 0.076304079989588394217 -1.2301850987139004712 0.060876824115128166937 0.19808320581044319697 -0.074812388148627076423 0.26144022163046060081 -0.16802721261390549112 1.2193298862302541785 0.55002591183881166526 -0.26736028275759637918 -0.45737937395651501182 0.39838262725614104198 0.53189873002350918085 -0.43256770530651272866 -0.12156788048787754708 -0.14637737101381659288 0.038481219850325633358 -0.097759335652468679068;-0.16708355506020169945 0.18158820583384230329 -0.42454600222420979527 0.81414705951514398929 -1.0963373762180119719 0.15940928646055677054 0.31493178192772453006 -0.13591160656543668783 0.041680221212442081224 -0.20682272108322222182 -0.31265478199638679913 0.14778467686320923002 0.67623436741765996505 0.31086859737535144088 -0.57025556258463472314 0.30243956525084575437 -0.21505258983903716152 -0.36788703688322643703 0.40326783436009677741 -0.18536688609120541282 -0.13195639628093772111 -0.42174579716851579025 -0.57176460143097740385;-0.10544550917393759326 0.47178768798941278506 -0.41217403230268156999 0.66517199312200703254 0.97186253428011259992 -0.044287868156457292634 -0.19595520655825715561 -0.1492503893444849794 0.050865485591269250787 -0.036060889686524925934 0.40501916340006666184 -0.17935137966755482219 -0.76774202644704558907 -0.15990317395985215176 0.41205761529858592196 0.38243831311626053093 0.10411175532573357927 0.74065865934622387989 0.059173110459655786642 -0.037111031233898333914 -0.053319420007032262976 0.12895815980260108558 0.00052946995501945096768;0.40573265598244301344 -0.35454284580736622479 -0.31139429410251606711 -0.79533198609473609864 0.40283985042450193292 -0.17995691171807243203 -0.085246607467210772091 -0.42803284735343100076 -0.033373243330216767477 -0.0023211457826049944168 0.088024557700445871244 -0.51344833155378244438 -0.67417219772212588769 -0.1406213253552621445 0.8245032680879683662 -0.23675813247407465068 0.64819619922154025904 -0.43230955416255534285 -0.14377863318763958733 0.42710739296613592364 0.07939223111658924581 -0.20583726829712073458 -0.83450597129459891388;-0.31925370332527286399 0.23094733368564879239 -0.094699511937828301233 0.47437713113071650062 0.49761940544673383124 -0.12206258869399552736 -0.070607902119939641716 0.33757469905752379713 -0.1861002131588913866 -0.11048046128124285048 0.012509941752731363468 -0.078767707233945258305 0.60989085025605360713 0.52597671068625562185 -0.67736423644724874649 0.16510267288204949487 0.12196499085490414283 0.20539279064358215154 -0.063544312704569880235 0.10453358080122836238 -0.080293461742924135405 0.011172463776068796565 2.1015685193978241863];

% Layer 2
b2 = -0.44653108386287321263;
LW2_1 = [1.457563307885246795 -1.502218518571999395 -1.4501010144457930906 -1.8144459793739105002 1.1642177595301137494 -1.7253142003639017066 -1.5349090232546900303 -1.3429652408293863974 -1.4373708380910601434 -1.1791113247588143054];

% Output 1
y1_step1.ymin = -1;
y1_step1.gain = 0.0196656833824975;
y1_step1.xoffset = 0;

% ===== SIMULATION ========

% Dimensions
Q = size(x1,2); % samples

% Input 1
xp1 = mapminmax_apply(x1,x1_step1);

% Layer 1
a1 = tansig_apply(repmat(b1,1,Q) + IW1_1*xp1);

% Layer 2
a2 = repmat(b2,1,Q) + LW2_1*a1;

% Output 1
y1 = mapminmax_reverse(a2,y1_step1);
end

% ===== MODULE FUNCTIONS ========

% Map Minimum and Maximum Input Processing Function
function y = mapminmax_apply(x,settings)
  y = bsxfun(@minus,x,settings.xoffset);
  y = bsxfun(@times,y,settings.gain);
  y = bsxfun(@plus,y,settings.ymin);
end

% Sigmoid Symmetric Transfer Function
function a = tansig_apply(n,~)
  a = 2 ./ (1 + exp(-2*n)) - 1;
end

% Map Minimum and Maximum Output Reverse-Processing Function
function x = mapminmax_reverse(y,settings)
  x = bsxfun(@minus,y,settings.ymin);
  x = bsxfun(@rdivide,x,settings.gain);
  x = bsxfun(@plus,x,settings.xoffset);
end
